booster[0]:
0:[f5<7] yes=1,no=2,missing=1
	1:[f4<150] yes=3,no=4,missing=3
		3:[f3<12.5] yes=7,no=8,missing=7
			7:leaf=0.195245907
			8:leaf=0.633736312
		4:[f3<7.5] yes=9,no=10,missing=9
			9:[f4<170] yes=15,no=16,missing=15
				15:leaf=1.03123462
				16:leaf=0.598370373
			10:[f4<170] yes=17,no=18,missing=17
				17:leaf=1.07760334
				18:leaf=1.40248454
	2:[f5<11] yes=5,no=6,missing=5
		5:[f3<7.5] yes=11,no=12,missing=11
			11:[f4<150] yes=19,no=20,missing=19
				19:leaf=0.809295774
				20:leaf=1.22358787
			12:[f1<0.899999976] yes=21,no=22,missing=21
				21:leaf=1.48302054
				22:leaf=1.17459464
		6:[f4<170] yes=13,no=14,missing=13
			13:[f3<12.5] yes=23,no=24,missing=23
				23:leaf=0.947205007
				24:leaf=1.12164831
			14:[f3<12.5] yes=25,no=26,missing=25
				25:leaf=1.37857139
				26:leaf=0.987049222
booster[1]:
0:[f2<0.5] yes=1,no=2,missing=1
	1:[f4<150] yes=3,no=4,missing=3
		3:leaf=0.188283384
		4:[f4<190] yes=7,no=8,missing=7
			7:leaf=0.0545149855
			8:leaf=-0.0155574977
	2:[f2<1.5] yes=5,no=6,missing=5
		5:[f4<170] yes=9,no=10,missing=9
			9:[f5<9] yes=13,no=14,missing=13
				13:leaf=0.472008437
				14:leaf=0.978486359
			10:[f0<0.700000048] yes=15,no=16,missing=15
				15:leaf=1.3867507
				16:leaf=1.05376947
		6:[f2<5] yes=11,no=12,missing=11
			11:[f5<11] yes=17,no=18,missing=17
				17:leaf=1.32451534
				18:leaf=1.18318033
			12:[f0<0.5] yes=19,no=20,missing=19
				19:leaf=1.28947413
				20:leaf=1.52861726
booster[2]:
0:[f2<0.5] yes=1,no=2,missing=1
	1:[f4<150] yes=3,no=4,missing=3
		3:leaf=0.167057201
		4:[f3<12.5] yes=7,no=8,missing=7
			7:[f4<190] yes=13,no=14,missing=13
				13:leaf=0.0129954591
				14:leaf=-0.0244381409
			8:leaf=0.0384542421
	2:[f4<150] yes=5,no=6,missing=5
		5:[f2<1.5] yes=9,no=10,missing=9
			9:leaf=0.636507571
			10:[f3<7.5] yes=15,no=16,missing=15
				15:leaf=0.790178537
				16:leaf=1.03076756
		6:[f2<1.5] yes=11,no=12,missing=11
			11:[f4<170] yes=17,no=18,missing=17
				17:leaf=0.662542462
				18:leaf=1.12337565
			12:[f2<5] yes=19,no=20,missing=19
				19:leaf=1.19156349
				20:leaf=1.29340065
booster[3]:
0:[f5<7] yes=1,no=2,missing=1
	1:[f3<7.5] yes=3,no=4,missing=3
		3:[f1<0.700000048] yes=7,no=8,missing=7
			7:leaf=0.636164665
			8:leaf=0.370233685
		4:[f0<0.899999976] yes=9,no=10,missing=9
			9:[f1<0.300000012] yes=15,no=16,missing=15
				15:leaf=0.648248017
				16:leaf=0.881644428
			10:leaf=0.605455875
	2:[f3<12.5] yes=5,no=6,missing=5
		5:[f5<9] yes=11,no=12,missing=11
			11:[f0<0.700000048] yes=17,no=18,missing=17
				17:leaf=1.01323843
				18:leaf=0.768605888
			12:[f0<0.700000048] yes=19,no=20,missing=19
				19:leaf=0.721991181
				20:leaf=0.89080888
		6:[f5<11] yes=13,no=14,missing=13
			13:[f5<9] yes=21,no=22,missing=21
				21:leaf=0.668255568
				22:leaf=1.26596785
			14:[f0<0.700000048] yes=23,no=24,missing=23
				23:leaf=0.622586668
				24:leaf=0.879484117
booster[4]:
0:[f3<7.5] yes=1,no=2,missing=1
	1:[f5<11] yes=3,no=4,missing=3
		3:[f5<9] yes=7,no=8,missing=7
			7:[f4<150] yes=13,no=14,missing=13
				13:leaf=0.383587539
				14:leaf=0.654399812
			8:leaf=0.296937615
		4:leaf=0.8531214
	2:[f4<170] yes=5,no=6,missing=5
		5:[f5<7] yes=9,no=10,missing=9
			9:[f4<150] yes=15,no=16,missing=15
				15:leaf=0.275952518
				16:leaf=0.809922338
			10:[f4<150] yes=17,no=18,missing=17
				17:leaf=0.964616477
				18:leaf=0.655395567
		6:[f5<7] yes=11,no=12,missing=11
			11:[f1<0.5] yes=19,no=20,missing=19
				19:leaf=0.820490837
				20:leaf=1.21881843
			12:[f4<190] yes=21,no=22,missing=21
				21:leaf=0.867888749
				22:leaf=0.742948234
booster[5]:
0:[f2<0.5] yes=1,no=2,missing=1
	1:[f4<150] yes=3,no=4,missing=3
		3:leaf=0.0454857945
		4:[f4<190] yes=7,no=8,missing=7
			7:leaf=-0.0988267362
			8:leaf=-0.135966018
	2:[f2<1.5] yes=5,no=6,missing=5
		5:[f0<0.700000048] yes=9,no=10,missing=9
			9:[f4<170] yes=13,no=14,missing=13
				13:leaf=0.600568831
				14:leaf=0.996174037
			10:leaf=0.372703373
		6:[f2<5] yes=11,no=12,missing=11
			11:[f4<170] yes=15,no=16,missing=15
				15:leaf=0.785069406
				16:leaf=0.910250366
			12:[f5<9] yes=17,no=18,missing=17
				17:leaf=0.965593815
				18:leaf=1.143713
booster[6]:
0:[f2<0.5] yes=1,no=2,missing=1
	1:[f4<150] yes=3,no=4,missing=3
		3:leaf=0.0848723501
		4:[f4<190] yes=7,no=8,missing=7
			7:leaf=-0.0775555
			8:leaf=-0.134907722
	2:[f2<1.5] yes=5,no=6,missing=5
		5:[f4<170] yes=9,no=10,missing=9
			9:[f0<0.700000048] yes=13,no=14,missing=13
				13:leaf=0.395726234
				14:leaf=0.149768934
			10:[f5<9] yes=15,no=16,missing=15
				15:leaf=0.58477062
				16:leaf=0.861977696
		6:[f2<5] yes=11,no=12,missing=11
			11:[f5<11] yes=17,no=18,missing=17
				17:leaf=0.822060525
				18:leaf=0.712308705
			12:[f0<0.5] yes=19,no=20,missing=19
				19:leaf=0.850693047
				20:leaf=1.00250077
booster[7]:
0:[f3<7.5] yes=1,no=2,missing=1
	1:[f0<0.700000048] yes=3,no=4,missing=3
		3:[f5<11] yes=7,no=8,missing=7
			7:[f0<0.300000012] yes=15,no=16,missing=15
				15:leaf=0.378839791
				16:leaf=0.565173507
			8:leaf=0.66917032
		4:[f1<0.5] yes=9,no=10,missing=9
			9:leaf=0.199663237
			10:[f0<0.899999976] yes=17,no=18,missing=17
				17:leaf=0.335272163
				18:leaf=0.548147023
	2:[f1<0.899999976] yes=5,no=6,missing=5
		5:[f1<0.300000012] yes=11,no=12,missing=11
			11:[f5<11] yes=19,no=20,missing=19
				19:leaf=0.551942527
				20:leaf=0.366936415
			12:[f5<7] yes=21,no=22,missing=21
				21:leaf=0.584016502
				22:leaf=0.713346124
		6:[f5<6] yes=13,no=14,missing=13
			13:leaf=0.27419275
			14:[f0<0.600000024] yes=23,no=24,missing=23
				23:leaf=0.424761295
				24:leaf=0.644713581
booster[8]:
0:[f4<150] yes=1,no=2,missing=1
	1:[f5<9] yes=3,no=4,missing=3
		3:[f5<7] yes=7,no=8,missing=7
			7:[f1<0.600000024] yes=15,no=16,missing=15
				15:leaf=0.144107267
				16:leaf=0.00404173136
			8:leaf=0.311685741
		4:[f5<11] yes=9,no=10,missing=9
			9:leaf=0.879675508
			10:leaf=0.373273849
	2:[f1<0.700000048] yes=5,no=6,missing=5
		5:[f5<9] yes=11,no=12,missing=11
			11:[f0<0.899999976] yes=17,no=18,missing=17
				17:leaf=0.710183203
				18:leaf=0.415532738
			12:[f0<0.700000048] yes=19,no=20,missing=19
				19:leaf=0.394188583
				20:leaf=0.721397817
		6:[f0<0.5] yes=13,no=14,missing=13
			13:leaf=0.331953734
			14:[f4<170] yes=21,no=22,missing=21
				21:leaf=0.410755843
				22:leaf=0.597338855
booster[9]:
0:[f5<7] yes=1,no=2,missing=1
	1:[f4<150] yes=3,no=4,missing=3
		3:[f3<12.5] yes=7,no=8,missing=7
			7:leaf=0.00608544145
			8:leaf=0.191140637
		4:[f3<7.5] yes=9,no=10,missing=9
			9:leaf=0.240507722
			10:[f0<0.5] yes=15,no=16,missing=15
				15:leaf=0.707716286
				16:leaf=0.457610846
	2:[f3<7.5] yes=5,no=6,missing=5
		5:[f4<190] yes=11,no=12,missing=11
			11:[f0<0.700000048] yes=17,no=18,missing=17
				17:leaf=0.451032221
				18:leaf=0.297154307
			12:leaf=0.541567087
		6:[f5<11] yes=13,no=14,missing=13
			13:[f5<9] yes=19,no=20,missing=19
				19:leaf=0.477707773
				20:leaf=0.686175764
			14:[f0<0.700000048] yes=21,no=22,missing=21
				21:leaf=0.333100349
				22:leaf=0.518588245
booster[10]:
0:[f5<7] yes=1,no=2,missing=1
	1:[f4<150] yes=3,no=4,missing=3
		3:[f1<0.600000024] yes=7,no=8,missing=7
			7:leaf=0.085036613
			8:leaf=-0.00850965735
		4:[f1<0.899999976] yes=9,no=10,missing=9
			9:[f0<0.700000048] yes=15,no=16,missing=15
				15:leaf=0.544686019
				16:leaf=0.374678522
			10:leaf=0.242349744
	2:[f1<0.300000012] yes=5,no=6,missing=5
		5:[f0<0.700000048] yes=11,no=12,missing=11
			11:leaf=0.210606009
			12:leaf=0.375832647
		6:[f4<150] yes=13,no=14,missing=13
			13:[f5<9] yes=17,no=18,missing=17
				17:leaf=0.120622359
				18:leaf=0.664738119
			14:[f5<9] yes=19,no=20,missing=19
				19:leaf=0.493938297
				20:leaf=0.365631312
booster[11]:
0:[f4<150] yes=1,no=2,missing=1
	1:[f5<9] yes=3,no=4,missing=3
		3:[f5<7] yes=7,no=8,missing=7
			7:[f3<12.5] yes=15,no=16,missing=15
				15:leaf=-0.0323665664
				16:leaf=0.130975559
			8:leaf=0.231490761
		4:[f3<12.5] yes=9,no=10,missing=9
			9:leaf=0.368377447
			10:leaf=0.789965808
	2:[f1<0.300000012] yes=5,no=6,missing=5
		5:[f4<190] yes=11,no=12,missing=11
			11:leaf=0.402256578
			12:leaf=0.00265561487
		6:[f5<5] yes=13,no=14,missing=13
			13:[f3<7.5] yes=17,no=18,missing=17
				17:leaf=0.355971724
				18:leaf=0.584849477
			14:[f4<170] yes=19,no=20,missing=19
				19:leaf=0.281689256
				20:leaf=0.454941005
booster[12]:
0:[f2<0.5] yes=1,no=2,missing=1
	1:[f0<0.700000048] yes=3,no=4,missing=3
		3:leaf=-0.293452978
		4:[f5<5] yes=7,no=8,missing=7
			7:leaf=-0.112447098
			8:leaf=-0.183354497
	2:[f2<1.5] yes=5,no=6,missing=5
		5:[f5<9] yes=9,no=10,missing=9
			9:[f5<5] yes=13,no=14,missing=13
				13:leaf=0.32664904
				14:leaf=0.0583397336
			10:[f5<11] yes=15,no=16,missing=15
				15:leaf=0.5752756
				16:leaf=0.348562062
		6:[f1<0.300000012] yes=11,no=12,missing=11
			11:[f5<9] yes=17,no=18,missing=17
				17:leaf=0.295345753
				18:leaf=0.391215205
			12:[f5<5] yes=19,no=20,missing=19
				19:leaf=0.652525246
				20:leaf=0.516917467
booster[13]:
0:[f5<7] yes=1,no=2,missing=1
	1:[f4<150] yes=3,no=4,missing=3
		3:[f5<5] yes=7,no=8,missing=7
			7:leaf=0.0565166771
			8:leaf=0.132762551
		4:[f0<0.700000048] yes=9,no=10,missing=9
			9:[f1<0.700000048] yes=15,no=16,missing=15
				15:leaf=0.450126559
				16:leaf=0.244600326
			10:[f1<0.899999976] yes=17,no=18,missing=17
				17:leaf=0.209294111
				18:leaf=0.399196625
	2:[f5<11] yes=5,no=6,missing=5
		5:[f0<0.899999976] yes=11,no=12,missing=11
			11:[f0<0.300000012] yes=19,no=20,missing=19
				19:leaf=0.438213438
				20:leaf=0.286751986
			12:leaf=0.555057824
		6:[f1<0.700000048] yes=13,no=14,missing=13
			13:[f0<0.899999976] yes=21,no=22,missing=21
				21:leaf=0.359682173
				22:leaf=0.217182159
			14:[f1<0.899999976] yes=23,no=24,missing=23
				23:leaf=0.132851869
				24:leaf=0.25380075
booster[14]:
0:[f2<0.5] yes=1,no=2,missing=1
	1:[f4<150] yes=3,no=4,missing=3
		3:leaf=-0.0892353579
		4:[f4<170] yes=7,no=8,missing=7
			7:leaf=-0.260855019
			8:leaf=-0.329311013
	2:[f2<5] yes=5,no=6,missing=5
		5:[f3<7.5] yes=9,no=10,missing=9
			9:[f2<1.5] yes=13,no=14,missing=13
				13:leaf=-0.0372514427
				14:leaf=0.31194362
			10:[f4<190] yes=15,no=16,missing=15
				15:leaf=0.36131534
				16:leaf=0.462595761
		6:[f5<9] yes=11,no=12,missing=11
			11:[f4<170] yes=17,no=18,missing=17
				17:leaf=0.380282164
				18:leaf=0.562646389
			12:leaf=0.663653433
booster[15]:
0:[f4<150] yes=1,no=2,missing=1
	1:[f5<9] yes=3,no=4,missing=3
		3:[f0<0.700000048] yes=7,no=8,missing=7
			7:leaf=0.0775153935
			8:[f1<0.700000048] yes=15,no=16,missing=15
				15:leaf=0.0337866284
				16:leaf=-0.0200452749
		4:[f5<11] yes=9,no=10,missing=9
			9:leaf=0.567102373
			10:leaf=0.159701109
	2:[f5<9] yes=5,no=6,missing=5
		5:[f0<0.700000048] yes=11,no=12,missing=11
			11:[f5<7] yes=17,no=18,missing=17
				17:leaf=0.314279348
				18:leaf=0.424531192
			12:[f1<0.5] yes=19,no=20,missing=19
				19:leaf=0.1532574
				20:leaf=0.294862956
		6:[f0<0.700000048] yes=13,no=14,missing=13
			13:[f4<190] yes=21,no=22,missing=21
				21:leaf=0.192057058
				22:leaf=0.109861307
			14:[f4<170] yes=23,no=24,missing=23
				23:leaf=0.187375635
				24:leaf=0.368588656
booster[16]:
0:[f0<0.300000012] yes=1,no=2,missing=1
	1:[f5<11] yes=3,no=4,missing=3
		3:[f4<150] yes=7,no=8,missing=7
			7:leaf=0.156721756
			8:[f4<190] yes=13,no=14,missing=13
				13:leaf=0.500301182
				14:leaf=0.395466566
		4:leaf=0.144961372
	2:[f1<0.5] yes=5,no=6,missing=5
		5:[f1<0.300000012] yes=9,no=10,missing=9
			9:[f0<0.700000048] yes=15,no=16,missing=15
				15:leaf=-0.0412530117
				16:leaf=0.162120968
			10:[f0<0.899999976] yes=17,no=18,missing=17
				17:leaf=0.178042248
				18:leaf=0.0940250158
		6:[f5<11] yes=11,no=12,missing=11
			11:[f5<9] yes=19,no=20,missing=19
				19:leaf=0.221637592
				20:leaf=0.402217001
			12:[f0<0.700000048] yes=21,no=22,missing=21
				21:leaf=0.0387927257
				22:leaf=0.181721553
booster[17]:
0:[f1<0.899999976] yes=1,no=2,missing=1
	1:[f5<5] yes=3,no=4,missing=3
		3:[f4<190] yes=7,no=8,missing=7
			7:[f1<0.5] yes=13,no=14,missing=13
				13:leaf=0.264000446
				14:leaf=0.136271343
			8:leaf=0.449165553
		4:[f0<0.300000012] yes=9,no=10,missing=9
			9:[f4<150] yes=15,no=16,missing=15
				15:leaf=0.357963413
				16:leaf=0.251450092
			10:[f5<7] yes=17,no=18,missing=17
				17:leaf=0.119120516
				18:leaf=0.191840723
	2:[f5<9] yes=5,no=6,missing=5
		5:[f5<5] yes=11,no=12,missing=11
			11:leaf=0.0335398689
			12:leaf=0.117423676
		6:leaf=0.208183482
booster[18]:
0:[f2<0.5] yes=1,no=2,missing=1
	1:[f4<150] yes=3,no=4,missing=3
		3:leaf=-0.13318482
		4:leaf=-0.342210352
	2:[f2<1.5] yes=5,no=6,missing=5
		5:[f3<12.5] yes=7,no=8,missing=7
			7:[f4<150] yes=11,no=12,missing=11
				11:leaf=-0.0703679845
				12:leaf=0.164776936
			8:leaf=0.337249994
		6:[f1<0.300000012] yes=9,no=10,missing=9
			9:[f4<170] yes=13,no=14,missing=13
				13:leaf=0.11858853
				14:leaf=0.332006425
			10:[f2<5] yes=15,no=16,missing=15
				15:leaf=0.317380011
				16:leaf=0.437728703
booster[19]:
0:[f2<0.5] yes=1,no=2,missing=1
	1:[f4<150] yes=3,no=4,missing=3
		3:leaf=-0.0697124526
		4:leaf=-0.308523446
	2:[f2<1.5] yes=5,no=6,missing=5
		5:[f0<0.5] yes=7,no=8,missing=7
			7:leaf=0.293116957
			8:[f4<170] yes=11,no=12,missing=11
				11:leaf=-0.040614035
				12:leaf=0.136829585
		6:[f2<5] yes=9,no=10,missing=9
			9:[f0<0.700000048] yes=13,no=14,missing=13
				13:leaf=0.267973691
				14:leaf=0.219856575
			10:[f0<0.700000048] yes=15,no=16,missing=15
				15:leaf=0.311931282
				16:leaf=0.40445587
booster[20]:
0:[f2<0.5] yes=1,no=2,missing=1
	1:[f0<0.700000048] yes=3,no=4,missing=3
		3:leaf=-0.258510351
		4:[f1<0.899999976] yes=7,no=8,missing=7
			7:leaf=-0.219410345
			8:leaf=-0.128223941
	2:[f2<5] yes=5,no=6,missing=5
		5:[f0<0.5] yes=9,no=10,missing=9
			9:[f2<1.5] yes=13,no=14,missing=13
				13:leaf=0.317160159
				14:leaf=0.220071867
			10:[f2<1.5] yes=15,no=16,missing=15
				15:leaf=0.0289623085
				16:leaf=0.192325339
		6:[f5<9] yes=11,no=12,missing=11
			11:[f0<0.5] yes=17,no=18,missing=17
				17:leaf=0.141910881
				18:leaf=0.307932585
			12:leaf=0.433149189
booster[21]:
0:[f2<0.5] yes=1,no=2,missing=1
	1:[f4<150] yes=3,no=4,missing=3
		3:leaf=-0.0932339057
		4:leaf=-0.250988722
	2:[f2<1.5] yes=5,no=6,missing=5
		5:[f3<7.5] yes=7,no=8,missing=7
			7:leaf=-0.127880201
			8:[f4<150] yes=11,no=12,missing=11
				11:leaf=0.0482094139
				12:leaf=0.207343847
		6:[f2<5] yes=9,no=10,missing=9
			9:[f4<150] yes=13,no=14,missing=13
				13:leaf=0.161358595
				14:leaf=0.230380341
			10:[f0<0.700000048] yes=15,no=16,missing=15
				15:leaf=0.268818706
				16:leaf=0.347883165
booster[22]:
0:[f2<0.5] yes=1,no=2,missing=1
	1:[f4<150] yes=3,no=4,missing=3
		3:leaf=-0.0487903506
		4:[f1<0.700000048] yes=7,no=8,missing=7
			7:leaf=-0.255726427
			8:leaf=-0.191049337
	2:[f4<170] yes=5,no=6,missing=5
		5:[f2<1.5] yes=9,no=10,missing=9
			9:[f1<0.5] yes=13,no=14,missing=13
				13:leaf=0.117318444
				14:leaf=-0.0199679565
			10:[f1<0.300000012] yes=15,no=16,missing=15
				15:leaf=0.0799103901
				16:leaf=0.204036474
		6:[f2<5] yes=11,no=12,missing=11
			11:[f1<0.899999976] yes=17,no=18,missing=17
				17:leaf=0.208728224
				18:leaf=0.147936493
			12:[f3<12.5] yes=19,no=20,missing=19
				19:leaf=0.254653364
				20:leaf=0.365756124
booster[23]:
0:[f5<11] yes=1,no=2,missing=1
	1:[f5<9] yes=3,no=4,missing=3
		3:[f4<150] yes=7,no=8,missing=7
			7:[f0<0.300000012] yes=15,no=16,missing=15
				15:leaf=-0.154539257
				16:leaf=0.00395316444
			8:[f0<0.300000012] yes=17,no=18,missing=17
				17:leaf=0.26977548
				18:leaf=0.116246082
		4:[f4<150] yes=9,no=10,missing=9
			9:leaf=0.391167939
			10:[f0<0.5] yes=19,no=20,missing=19
				19:leaf=0.00418612128
				20:leaf=0.201793551
	2:[f4<170] yes=5,no=6,missing=5
		5:[f0<0.5] yes=11,no=12,missing=11
			11:leaf=0.117822193
			12:[f1<0.5] yes=21,no=22,missing=21
				21:leaf=-0.0765010715
				22:leaf=-0.0165917035
		6:[f0<0.700000048] yes=13,no=14,missing=13
			13:leaf=0.118507504
			14:leaf=0.172951728
booster[24]:
0:[f2<0.5] yes=1,no=2,missing=1
	1:[f4<150] yes=3,no=4,missing=3
		3:leaf=-0.0523047261
		4:[f0<0.5] yes=7,no=8,missing=7
			7:leaf=-0.190567598
			8:leaf=-0.24143064
	2:[f5<5] yes=5,no=6,missing=5
		5:[f2<3] yes=9,no=10,missing=9
			9:[f2<1.5] yes=13,no=14,missing=13
				13:leaf=0.11700251
				14:leaf=0.193464354
			10:[f0<0.700000048] yes=15,no=16,missing=15
				15:leaf=0.227372631
				16:leaf=0.371164173
		6:[f5<9] yes=11,no=12,missing=11
			11:[f4<150] yes=17,no=18,missing=17
				17:leaf=-0.0457668155
				18:leaf=0.130832896
			12:[f5<11] yes=19,no=20,missing=19
				19:leaf=0.24142383
				20:leaf=0.11422012
booster[25]:
0:[f2<0.5] yes=1,no=2,missing=1
	1:[f3<7.5] yes=3,no=4,missing=3
		3:leaf=-0.0996595249
		4:leaf=-0.168691635
	2:[f5<5] yes=5,no=6,missing=5
		5:[f0<0.5] yes=9,no=10,missing=9
			9:leaf=0.18220894
			10:[f2<3] yes=13,no=14,missing=13
				13:leaf=0.155306518
				14:leaf=0.330297768
		6:[f5<9] yes=11,no=12,missing=11
			11:[f2<1.5] yes=15,no=16,missing=15
				15:leaf=-0.0471795946
				16:leaf=0.0821480975
			12:[f5<11] yes=17,no=18,missing=17
				17:leaf=0.243946075
				18:leaf=0.106927179
booster[26]:
0:[f2<0.5] yes=1,no=2,missing=1
	1:[f4<150] yes=3,no=4,missing=3
		3:leaf=-0.0520725958
		4:[f4<170] yes=7,no=8,missing=7
			7:leaf=-0.153840452
			8:leaf=-0.208232909
	2:[f3<12.5] yes=5,no=6,missing=5
		5:[f4<150] yes=9,no=10,missing=9
			9:[f0<0.5] yes=13,no=14,missing=13
				13:leaf=0.0590744317
				14:leaf=-0.0482329242
			10:[f2<1.5] yes=15,no=16,missing=15
				15:leaf=0.0677216798
				16:leaf=0.141534358
		6:[f0<0.899999976] yes=11,no=12,missing=11
			11:[f4<190] yes=17,no=18,missing=17
				17:leaf=0.143357381
				18:leaf=0.246391922
			12:leaf=0.258618593
booster[27]:
0:[f2<0.5] yes=1,no=2,missing=1
	1:[f4<150] yes=3,no=4,missing=3
		3:leaf=-0.0323494971
		4:[f0<0.5] yes=7,no=8,missing=7
			7:leaf=-0.146397635
			8:leaf=-0.193378851
	2:[f4<150] yes=5,no=6,missing=5
		5:[f5<9] yes=9,no=10,missing=9
			9:[f0<0.300000012] yes=13,no=14,missing=13
				13:leaf=-0.172569931
				14:leaf=-0.0226442367
			10:[f0<0.700000048] yes=15,no=16,missing=15
				15:leaf=0.2554636
				16:leaf=0.036741402
		6:[f5<11] yes=11,no=12,missing=11
			11:[f2<1.5] yes=17,no=18,missing=17
				17:leaf=0.0369221494
				18:leaf=0.172238991
			12:[f2<3] yes=19,no=20,missing=19
				19:leaf=0.0811644047
				20:leaf=0.015339586
booster[28]:
0:[f2<0.5] yes=1,no=2,missing=1
	1:[f3<7.5] yes=3,no=4,missing=3
		3:leaf=-0.0797612295
		4:[f3<12.5] yes=7,no=8,missing=7
			7:leaf=-0.156596407
			8:[f0<0.700000048] yes=13,no=14,missing=13
				13:leaf=-0.087545
				14:leaf=-0.137037367
	2:[f1<0.5] yes=5,no=6,missing=5
		5:[f0<0.700000048] yes=9,no=10,missing=9
			9:[f2<1.5] yes=15,no=16,missing=15
				15:leaf=0.180679545
				16:leaf=0.0658288971
			10:[f2<1.5] yes=17,no=18,missing=17
				17:leaf=-0.0432027578
				18:leaf=0.0919203982
		6:[f3<12.5] yes=11,no=12,missing=11
			11:[f2<1.5] yes=19,no=20,missing=19
				19:leaf=0.0059242975
				20:leaf=0.124649763
			12:[f1<0.899999976] yes=21,no=22,missing=21
				21:leaf=0.265094191
				22:leaf=0.00784033444
booster[29]:
0:[f5<9] yes=1,no=2,missing=1
	1:[f4<150] yes=3,no=4,missing=3
		3:[f1<0.700000048] yes=7,no=8,missing=7
			7:[f3<12.5] yes=15,no=16,missing=15
				15:leaf=-0.113677718
				16:leaf=-0.0276183933
			8:leaf=0.00286749634
		4:[f3<7.5] yes=9,no=10,missing=9
			9:[f4<190] yes=17,no=18,missing=17
				17:leaf=0.0428708866
				18:leaf=-0.0241214968
			10:[f5<5] yes=19,no=20,missing=19
				19:leaf=0.108195566
				20:leaf=0.0610749424
	2:[f4<150] yes=5,no=6,missing=5
		5:[f5<11] yes=11,no=12,missing=11
			11:leaf=0.276415557
			12:leaf=0.0741140395
		6:[f4<170] yes=13,no=14,missing=13
			13:[f3<12.5] yes=21,no=22,missing=21
				21:leaf=0.0165446121
				22:leaf=-0.0204813555
			14:[f5<11] yes=23,no=24,missing=23
				23:leaf=0.0363989323
				24:leaf=0.122159839
booster[30]:
0:[f2<0.5] yes=1,no=2,missing=1
	1:[f1<0.5] yes=3,no=4,missing=3
		3:leaf=-0.0738970265
		4:[f5<5] yes=7,no=8,missing=7
			7:leaf=-0.0669900551
			8:leaf=-0.133902684
	2:[f2<5] yes=5,no=6,missing=5
		5:[f5<7] yes=9,no=10,missing=9
			9:[f1<0.300000012] yes=13,no=14,missing=13
				13:leaf=-0.0452466831
				14:leaf=0.0479001254
			10:[f0<0.700000048] yes=15,no=16,missing=15
				15:leaf=0.0985452458
				16:leaf=0.0511877127
		6:[f0<0.700000048] yes=11,no=12,missing=11
			11:[f5<7] yes=17,no=18,missing=17
				17:leaf=-0.00907720067
				18:leaf=0.136001989
			12:[f1<0.5] yes=19,no=20,missing=19
				19:leaf=0.10421028
				20:leaf=0.204632804
booster[31]:
0:[f2<0.5] yes=1,no=2,missing=1
	1:[f4<150] yes=3,no=4,missing=3
		3:leaf=-0.00341463205
		4:[f4<170] yes=7,no=8,missing=7
			7:leaf=-0.102251604
			8:leaf=-0.145451352
	2:[f2<5] yes=5,no=6,missing=5
		5:[f0<0.700000048] yes=9,no=10,missing=9
			9:[f4<190] yes=13,no=14,missing=13
				13:leaf=0.0470651574
				14:leaf=0.149558634
			10:[f2<1.5] yes=15,no=16,missing=15
				15:leaf=-0.0738423988
				16:leaf=0.0423641093
		6:[f0<0.5] yes=11,no=12,missing=11
			11:[f4<190] yes=17,no=18,missing=17
				17:leaf=0.0281632282
				18:leaf=0.0914045572
			12:[f5<7] yes=19,no=20,missing=19
				19:leaf=0.146605507
				20:leaf=0.186963797
booster[32]:
0:[f2<0.5] yes=1,no=2,missing=1
	1:[f4<150] yes=3,no=4,missing=3
		3:[f0<0.899999976] yes=7,no=8,missing=7
			7:leaf=0.00700203655
			8:leaf=-0.0215661749
		4:[f4<190] yes=9,no=10,missing=9
			9:leaf=-0.0973889455
			10:leaf=-0.141260266
	2:[f5<5] yes=5,no=6,missing=5
		5:[f4<190] yes=11,no=12,missing=11
			11:[f0<0.700000048] yes=15,no=16,missing=15
				15:leaf=0.116029762
				16:leaf=0.0693483278
			12:leaf=0.237400934
		6:[f5<9] yes=13,no=14,missing=13
			13:[f4<170] yes=17,no=18,missing=17
				17:leaf=-0.014041095
				18:leaf=0.0831935629
			14:[f5<11] yes=19,no=20,missing=19
				19:leaf=0.153201163
				20:leaf=0.0413278341
booster[33]:
0:[f3<12.5] yes=1,no=2,missing=1
	1:[f4<150] yes=3,no=4,missing=3
		3:[f1<0.700000048] yes=7,no=8,missing=7
			7:[f5<9] yes=13,no=14,missing=13
				13:leaf=-0.066771917
				14:leaf=0.0743948743
			8:leaf=-0.0951733291
		4:[f1<0.899999976] yes=9,no=10,missing=9
			9:[f1<0.700000048] yes=15,no=16,missing=15
				15:leaf=0.0523139127
				16:leaf=-0.0443925224
			10:[f5<5] yes=17,no=18,missing=17
				17:leaf=0.13428323
				18:leaf=0.0673430413
	2:[f1<0.300000012] yes=5,no=6,missing=5
		5:leaf=-0.0438911282
		6:[f1<0.899999976] yes=11,no=12,missing=11
			11:[f1<0.700000048] yes=19,no=20,missing=19
				19:leaf=0.0994260088
				20:leaf=0.207355529
			12:leaf=0.0262173861
booster[34]:
0:[f5<9] yes=1,no=2,missing=1
	1:[f4<150] yes=3,no=4,missing=3
		3:[f0<0.5] yes=7,no=8,missing=7
			7:leaf=-0.0996612087
			8:[f5<5] yes=15,no=16,missing=15
				15:leaf=0.0693220049
				16:leaf=-0.0582117625
		4:[f0<0.700000048] yes=9,no=10,missing=9
			9:[f5<5] yes=17,no=18,missing=17
				17:leaf=0.115527369
				18:leaf=0.0496287644
			10:[f3<7.5] yes=19,no=20,missing=19
				19:leaf=-0.0331349634
				20:leaf=0.0098632304
	2:[f4<150] yes=5,no=6,missing=5
		5:[f0<0.700000048] yes=11,no=12,missing=11
			11:[f5<11] yes=21,no=22,missing=21
				21:leaf=0.217587113
				22:leaf=0.0713369176
			12:leaf=0.00992985442
		6:[f4<190] yes=13,no=14,missing=13
			13:[f5<11] yes=23,no=24,missing=23
				23:leaf=0.0477706306
				24:leaf=-0.0180276316
			14:[f5<11] yes=25,no=26,missing=25
				25:leaf=0.00815903395
				26:leaf=0.0976262614
booster[35]:
0:[f2<0.5] yes=1,no=2,missing=1
	1:[f1<0.5] yes=3,no=4,missing=3
		3:leaf=-0.0449069515
		4:[f5<5] yes=7,no=8,missing=7
			7:leaf=-0.0479207151
			8:[f0<0.5] yes=13,no=14,missing=13
				13:leaf=-0.114956811
				14:leaf=-0.157090262
	2:[f2<5] yes=5,no=6,missing=5
		5:[f0<0.700000048] yes=9,no=10,missing=9
			9:[f5<5] yes=15,no=16,missing=15
				15:leaf=0.123163655
				16:leaf=0.0512887426
			10:[f2<1.5] yes=17,no=18,missing=17
				17:leaf=-0.107284538
				18:leaf=0.0299197827
		6:[f5<7] yes=11,no=12,missing=11
			11:[f0<0.700000048] yes=19,no=20,missing=19
				19:leaf=-0.0183038749
				20:leaf=0.1638688
			12:[f5<11] yes=21,no=22,missing=21
				21:leaf=0.160552427
				22:leaf=0.0920198783
booster[36]:
0:[f2<0.5] yes=1,no=2,missing=1
	1:[f4<150] yes=3,no=4,missing=3
		3:leaf=0.00864227861
		4:[f1<0.700000048] yes=7,no=8,missing=7
			7:leaf=-0.132808939
			8:leaf=-0.0785512626
	2:[f5<5] yes=5,no=6,missing=5
		5:[f2<3] yes=9,no=10,missing=9
			9:[f2<1.5] yes=13,no=14,missing=13
				13:leaf=0.00732213492
				14:leaf=0.0747803301
			10:[f2<5] yes=15,no=16,missing=15
				15:leaf=0.229229599
				16:leaf=0.157544881
		6:[f5<7] yes=11,no=12,missing=11
			11:[f1<0.5] yes=17,no=18,missing=17
				17:leaf=0.0246292483
				18:leaf=-0.0314870961
			12:[f5<11] yes=19,no=20,missing=19
				19:leaf=0.0854625329
				20:leaf=0.020105103
booster[37]:
0:[f3<12.5] yes=1,no=2,missing=1
	1:[f0<0.5] yes=3,no=4,missing=3
		3:[f3<7.5] yes=7,no=8,missing=7
			7:[f4<150] yes=15,no=16,missing=15
				15:leaf=0.0405784808
				16:leaf=0.113549076
			8:[f5<11] yes=17,no=18,missing=17
				17:leaf=-0.0123428088
				18:leaf=0.0482224785
		4:[f3<7.5] yes=9,no=10,missing=9
			9:[f4<150] yes=19,no=20,missing=19
				19:leaf=-0.0977996439
				20:leaf=-0.0462956131
			10:[f0<0.700000048] yes=21,no=22,missing=21
				21:leaf=-0.0212939102
				22:leaf=0.0370416716
	2:[f5<11] yes=5,no=6,missing=5
		5:[f0<0.300000012] yes=11,no=12,missing=11
			11:leaf=0.156915247
			12:[f0<0.5] yes=23,no=24,missing=23
				23:leaf=-0.0285277795
				24:leaf=0.103639953
		6:leaf=0.0174827091
booster[38]:
0:[f2<0.5] yes=1,no=2,missing=1
	1:[f0<0.899999976] yes=3,no=4,missing=3
		3:[f0<0.700000048] yes=7,no=8,missing=7
			7:[f3<12.5] yes=13,no=14,missing=13
				13:leaf=-0.113957159
				14:leaf=-0.0581038482
			8:leaf=-0.0511323325
		4:leaf=-0.000469623454
	2:[f2<5] yes=5,no=6,missing=5
		5:[f3<7.5] yes=9,no=10,missing=9
			9:[f2<1.5] yes=15,no=16,missing=15
				15:leaf=-0.160102963
				16:leaf=0.0222112183
			10:[f2<1.5] yes=17,no=18,missing=17
				17:leaf=0.0606537759
				18:leaf=0.0266669728
		6:[f3<12.5] yes=11,no=12,missing=11
			11:[f3<7.5] yes=19,no=20,missing=19
				19:leaf=0.0948553607
				20:leaf=0.028949324
			12:[f5<7] yes=21,no=22,missing=21
				21:leaf=0.0307421125
				22:leaf=0.253750205
booster[39]:
0:[f3<12.5] yes=1,no=2,missing=1
	1:[f1<0.300000012] yes=3,no=4,missing=3
		3:[f5<7] yes=7,no=8,missing=7
			7:leaf=-0.0199338812
			8:[f3<7.5] yes=13,no=14,missing=13
				13:leaf=0.12475282
				14:leaf=0.0431570187
		4:[f4<150] yes=9,no=10,missing=9
			9:[f5<7] yes=15,no=16,missing=15
				15:leaf=-0
				16:leaf=-0.0423599556
			10:[f1<0.899999976] yes=17,no=18,missing=17
				17:leaf=-0.00105020625
				18:leaf=0.0579497293
	2:[f1<0.300000012] yes=5,no=6,missing=5
		5:leaf=-0.0485742614
		6:[f1<0.899999976] yes=11,no=12,missing=11
			11:[f5<5] yes=19,no=20,missing=19
				19:leaf=0.164899454
				20:leaf=0.0710915476
			12:leaf=-0.0123932837
booster[40]:
0:[f2<0.5] yes=1,no=2,missing=1
	1:[f0<0.300000012] yes=3,no=4,missing=3
		3:leaf=-0.0874418914
		4:[f0<0.5] yes=7,no=8,missing=7
			7:leaf=-0.0173499789
			8:[f5<8] yes=13,no=14,missing=13
				13:leaf=-0.0317548066
				14:leaf=-0.0785086378
	2:[f5<5] yes=5,no=6,missing=5
		5:[f2<1.5] yes=9,no=10,missing=9
			9:leaf=-0.0138966162
			10:[f0<0.5] yes=15,no=16,missing=15
				15:leaf=-0
				16:leaf=0.159031302
		6:[f5<7] yes=11,no=12,missing=11
			11:[f0<0.700000048] yes=17,no=18,missing=17
				17:leaf=-0.0745367035
				18:leaf=0.044209417
			12:[f2<5] yes=19,no=20,missing=19
				19:leaf=0.0303127524
				20:leaf=0.0747274309
booster[41]:
0:[f2<0.5] yes=1,no=2,missing=1
	1:[f4<150] yes=3,no=4,missing=3
		3:leaf=0.0256301761
		4:[f5<11] yes=7,no=8,missing=7
			7:[f1<0.700000048] yes=13,no=14,missing=13
				13:leaf=-0.13744849
				14:leaf=-0.0815798268
			8:leaf=-0.0206725504
	2:[f5<5] yes=5,no=6,missing=5
		5:[f2<3] yes=9,no=10,missing=9
			9:leaf=0.0497795828
			10:[f2<5] yes=17,no=18,missing=17
				17:leaf=0.258307368
				18:leaf=0.0896365121
		6:[f1<0.300000012] yes=11,no=12,missing=11
			11:[f4<170] yes=19,no=20,missing=19
				19:leaf=0.00823352486
				20:leaf=0.162585646
			12:[f4<190] yes=21,no=22,missing=21
				21:leaf=0.0232453421
				22:leaf=-0.0199700873
booster[42]:
0:[f2<1.5] yes=1,no=2,missing=1
	1:[f0<0.5] yes=3,no=4,missing=3
		3:[f2<0.5] yes=7,no=8,missing=7
			7:[f0<0.300000012] yes=15,no=16,missing=15
				15:leaf=-0.0654708296
				16:leaf=-0.00993796159
			8:leaf=0.114051178
		4:[f1<0.300000012] yes=9,no=10,missing=9
			9:leaf=0.0283442177
			10:[f5<9] yes=17,no=18,missing=17
				17:leaf=-0.109083764
				18:leaf=-0.0368340723
	2:[f1<0.300000012] yes=5,no=6,missing=5
		5:[f5<7] yes=11,no=12,missing=11
			11:leaf=-0.0884346813
			12:[f0<0.700000048] yes=19,no=20,missing=19
				19:leaf=0.0404203013
				20:leaf=-0.00167149713
		6:[f5<11] yes=13,no=14,missing=13
			13:[f5<9] yes=21,no=22,missing=21
				21:leaf=0.0312904306
				22:leaf=0.105394103
			14:[f0<0.5] yes=23,no=24,missing=23
				23:leaf=0.0509155355
				24:leaf=-0.00866892468
booster[43]:
0:[f5<9] yes=1,no=2,missing=1
	1:[f4<150] yes=3,no=4,missing=3
		3:[f0<0.899999976] yes=7,no=8,missing=7
			7:[f5<7] yes=15,no=16,missing=15
				15:leaf=-0.128841132
				16:leaf=-0.0459139012
			8:leaf=0.0284282658
		4:[f0<0.700000048] yes=9,no=10,missing=9
			9:[f0<0.300000012] yes=17,no=18,missing=17
				17:leaf=0.0695467517
				18:leaf=0.0215411074
			10:[f4<170] yes=19,no=20,missing=19
				19:leaf=-7.62089476e-05
				20:leaf=-0.0684283897
	2:[f4<150] yes=5,no=6,missing=5
		5:[f3<12.5] yes=11,no=12,missing=11
			11:[f0<0.700000048] yes=21,no=22,missing=21
				21:leaf=0.085662961
				22:leaf=-0.086653471
			12:leaf=0.168383345
		6:[f0<0.300000012] yes=13,no=14,missing=13
			13:leaf=-0.0560642891
			14:[f3<7.5] yes=23,no=24,missing=23
				23:leaf=0.0977604166
				24:leaf=-0.00703024631
booster[44]:
0:[f2<0.5] yes=1,no=2,missing=1
	1:[f5<7] yes=3,no=4,missing=3
		3:[f4<150] yes=7,no=8,missing=7
			7:leaf=0.0338799134
			8:leaf=-0.0609178431
		4:[f5<11] yes=9,no=10,missing=9
			9:leaf=-0.0945784748
			10:leaf=-0.0580301173
	2:[f5<9] yes=5,no=6,missing=5
		5:[f4<150] yes=11,no=12,missing=11
			11:[f5<7] yes=15,no=16,missing=15
				15:leaf=-0.092708014
				16:leaf=-0.0331809595
			12:[f2<3] yes=17,no=18,missing=17
				17:leaf=0.0041029104
				18:leaf=0.0729177222
		6:[f4<170] yes=13,no=14,missing=13
			13:[f5<11] yes=19,no=20,missing=19
				19:leaf=0.106241822
				20:leaf=0.0045425389
			14:[f2<3] yes=21,no=22,missing=21
				21:leaf=0.146011144
				22:leaf=0.0124034621
booster[45]:
0:[f2<0.5] yes=1,no=2,missing=1
	1:[f5<7] yes=3,no=4,missing=3
		3:[f1<0.899999976] yes=7,no=8,missing=7
			7:leaf=-0.0635955781
			8:leaf=-0.00905438233
		4:[f1<0.700000048] yes=9,no=10,missing=9
			9:leaf=-0.048672732
			10:leaf=-0.0803312957
	2:[f3<12.5] yes=5,no=6,missing=5
		5:[f1<0.899999976] yes=11,no=12,missing=11
			11:[f2<1.5] yes=15,no=16,missing=15
				15:leaf=-0.0492054671
				16:leaf=0.0117163211
			12:[f5<6] yes=17,no=18,missing=17
				17:leaf=0.104508661
				18:leaf=0.0486201532
		6:[f1<0.899999976] yes=13,no=14,missing=13
			13:[f1<0.300000012] yes=19,no=20,missing=19
				19:leaf=-0.0280771442
				20:leaf=0.0846864134
			14:leaf=-0.0276164412
booster[46]:
0:[f1<0.899999976] yes=1,no=2,missing=1
	1:[f4<150] yes=3,no=4,missing=3
		3:[f0<0.5] yes=7,no=8,missing=7
			7:[f5<9] yes=13,no=14,missing=13
				13:leaf=0.0361533239
				14:leaf=0.134556264
			8:[f1<0.700000048] yes=15,no=16,missing=15
				15:leaf=-0.00010655044
				16:leaf=0.0948762223
		4:[f1<0.700000048] yes=9,no=10,missing=9
			9:[f4<190] yes=17,no=18,missing=17
				17:leaf=0.0187269095
				18:leaf=0.0521233864
			10:[f4<190] yes=19,no=20,missing=19
				19:leaf=-0.0729253069
				20:leaf=0.0270653553
	2:[f4<190] yes=5,no=6,missing=5
		5:[f4<150] yes=11,no=12,missing=11
			11:leaf=-0.0787825212
			12:[f0<0.300000012] yes=21,no=22,missing=21
				21:leaf=0.170863494
				22:leaf=0.00572098885
		6:leaf=-0.138438225
booster[47]:
0:[f2<0.5] yes=1,no=2,missing=1
	1:[f3<7.5] yes=3,no=4,missing=3
		3:leaf=-0.00148682029
		4:[f1<0.700000048] yes=9,no=10,missing=9
			9:leaf=-0.0671135709
			10:leaf=-0.030363718
	2:[f3<12.5] yes=5,no=6,missing=5
		5:[f2<1.5] yes=11,no=12,missing=11
			11:[f3<7.5] yes=15,no=16,missing=15
				15:leaf=-0.187366277
				16:leaf=0.0207520537
			12:[f2<3] yes=17,no=18,missing=17
				17:leaf=0.0483534411
				18:leaf=0.0035296157
		6:[f2<1.5] yes=13,no=14,missing=13
			13:leaf=0.104789175
			14:[f1<0.5] yes=19,no=20,missing=19
				19:leaf=0.00215638522
				20:leaf=0.0507648662
booster[48]:
0:[f5<9] yes=1,no=2,missing=1
	1:[f0<0.300000012] yes=3,no=4,missing=3
		3:[f5<5] yes=7,no=8,missing=7
			7:leaf=-0.0536590591
			8:leaf=0.0896783546
		4:[f5<5] yes=9,no=10,missing=9
			9:[f1<0.5] yes=15,no=16,missing=15
				15:leaf=-0.0279774759
				16:leaf=0.0462570265
			10:[f1<0.300000012] yes=17,no=18,missing=17
				17:leaf=0.0346822664
				18:leaf=-0.0491209254
	2:[f5<11] yes=5,no=6,missing=5
		5:[f0<0.700000048] yes=11,no=12,missing=11
			11:[f1<0.5] yes=19,no=20,missing=19
				19:leaf=0.0641062707
				20:leaf=-0.0280070361
			12:leaf=0.101175047
		6:[f0<0.5] yes=13,no=14,missing=13
			13:[f0<0.300000012] yes=21,no=22,missing=21
				21:leaf=-0.0446476117
				22:leaf=0.111724332
			14:[f3<12.5] yes=23,no=24,missing=23
				23:leaf=-0.00281978515
				24:leaf=-0.0790503025
booster[49]:
0:[f2<0.5] yes=1,no=2,missing=1
	1:[f1<0.5] yes=3,no=4,missing=3
		3:leaf=-0.0172871798
		4:[f5<5] yes=7,no=8,missing=7
			7:leaf=-0.0160548016
			8:[f1<0.700000048] yes=13,no=14,missing=13
				13:leaf=-0.0325835608
				14:leaf=-0.0731857046
	2:[f0<0.899999976] yes=5,no=6,missing=5
		5:[f0<0.700000048] yes=9,no=10,missing=9
			9:[f5<5] yes=15,no=16,missing=15
				15:leaf=0.0476752482
				16:leaf=0.0141406013
			10:[f5<5] yes=17,no=18,missing=17
				17:leaf=-0.100973465
				18:leaf=0.00399435358
		6:[f5<11] yes=11,no=12,missing=11
			11:[f5<7] yes=19,no=20,missing=19
				19:leaf=0.0373040363
				20:leaf=0.104980193
			12:leaf=-0.0411551073
booster[50]:
0:[f2<5] yes=1,no=2,missing=1
	1:[f3<7.5] yes=3,no=4,missing=3
		3:[f4<190] yes=7,no=8,missing=7
			7:[f0<0.5] yes=15,no=16,missing=15
				15:leaf=0.0624828115
				16:leaf=-0.0390961282
			8:leaf=-0.107434057
		4:[f0<0.899999976] yes=9,no=10,missing=9
			9:[f4<190] yes=17,no=18,missing=17
				17:leaf=-0.0245511737
				18:leaf=0.0487438403
			10:[f3<12.5] yes=19,no=20,missing=19
				19:leaf=0.083147876
				20:leaf=0.0319686644
	2:[f3<12.5] yes=5,no=6,missing=5
		5:[f0<0.700000048] yes=11,no=12,missing=11
			11:leaf=0.0273132231
			12:leaf=-0.00382788084
		6:[f0<0.5] yes=13,no=14,missing=13
			13:leaf=0.023208918
			14:leaf=0.148873925
booster[51]:
0:[f4<170] yes=1,no=2,missing=1
	1:[f0<0.899999976] yes=3,no=4,missing=3
		3:[f0<0.5] yes=7,no=8,missing=7
			7:[f3<7.5] yes=15,no=16,missing=15
				15:leaf=0.147792041
				16:leaf=0.0179104693
			8:[f5<11] yes=17,no=18,missing=17
				17:leaf=-0.01421203
				18:leaf=-0.0701064989
		4:[f3<12.5] yes=9,no=10,missing=9
			9:leaf=0.0171152595
			10:leaf=0.109286718
	2:[f5<7] yes=5,no=6,missing=5
		5:[f0<0.899999976] yes=11,no=12,missing=11
			11:[f3<12.5] yes=21,no=22,missing=21
				21:leaf=-0.0527482443
				22:leaf=0.0342081599
			12:leaf=-0.0845458433
		6:[f0<0.300000012] yes=13,no=14,missing=13
			13:[f4<190] yes=23,no=24,missing=23
				23:leaf=0.0568708554
				24:leaf=-0.0607853793
			14:[f3<12.5] yes=25,no=26,missing=25
				25:leaf=0.0601832978
				26:leaf=0.00953556132
booster[52]:
0:[f2<3] yes=1,no=2,missing=1
	1:[f1<0.300000012] yes=3,no=4,missing=3
		3:[f0<0.5] yes=7,no=8,missing=7
			7:leaf=0.0800027922
			8:[f4<170] yes=15,no=16,missing=15
				15:leaf=-0.0306714233
				16:leaf=0.0446940139
		4:[f4<190] yes=9,no=10,missing=9
			9:[f1<0.899999976] yes=17,no=18,missing=17
				17:leaf=-0.0408586226
				18:leaf=0.0304937344
			10:[f1<0.5] yes=19,no=20,missing=19
				19:leaf=-0.111324094
				20:leaf=-0.0566523671
	2:[f0<0.5] yes=5,no=6,missing=5
		5:[f2<5] yes=11,no=12,missing=11
			11:[f4<170] yes=21,no=22,missing=21
				21:leaf=0.0897473767
				22:leaf=-0.000102515951
			12:[f4<190] yes=23,no=24,missing=23
				23:leaf=-0.060127046
				24:leaf=0.00403365586
		6:[f4<150] yes=13,no=14,missing=13
			13:leaf=0.125743836
			14:[f1<0.5] yes=25,no=26,missing=25
				25:leaf=-0.0116767557
				26:leaf=0.0747136027
booster[53]:
0:[f2<5] yes=1,no=2,missing=1
	1:[f2<0.5] yes=3,no=4,missing=3
		3:[f1<0.899999976] yes=7,no=8,missing=7
			7:[f5<5] yes=13,no=14,missing=13
				13:leaf=-0.06746912
				14:leaf=-0.0184260942
			8:leaf=0.0143682184
		4:[f5<11] yes=9,no=10,missing=9
			9:[f2<1.5] yes=15,no=16,missing=15
				15:leaf=-0.00511984341
				16:leaf=0.0156142712
			10:[f0<0.5] yes=17,no=18,missing=17
				17:leaf=0.0677066669
				18:leaf=-0.0635167733
	2:[f5<5] yes=5,no=6,missing=5
		5:leaf=0.0746693537
		6:[f5<7] yes=11,no=12,missing=11
			11:leaf=-0.0534425676
			12:[f5<11] yes=19,no=20,missing=19
				19:leaf=0.0686430857
				20:leaf=0.0116081266
booster[54]:
0:[f2<0.5] yes=1,no=2,missing=1
	1:[f4<150] yes=3,no=4,missing=3
		3:leaf=0.00463700062
		4:[f4<190] yes=7,no=8,missing=7
			7:leaf=-0.0384872407
			8:leaf=-0.0694526285
	2:[f4<150] yes=5,no=6,missing=5
		5:[f1<0.300000012] yes=9,no=10,missing=9
			9:leaf=-0.0972192585
			10:[f3<12.5] yes=13,no=14,missing=13
				13:leaf=-0.0245198421
				14:leaf=0.0481570251
		6:[f3<7.5] yes=11,no=12,missing=11
			11:[f4<190] yes=15,no=16,missing=15
				15:leaf=0.0638271719
				16:leaf=-0.0410034135
			12:[f2<1.5] yes=17,no=18,missing=17
				17:leaf=0.0310719199
				18:leaf=-0.00229952764
booster[55]:
0:[f2<0.5] yes=1,no=2,missing=1
	1:[f5<7] yes=3,no=4,missing=3
		3:[f3<12.5] yes=7,no=8,missing=7
			7:leaf=-0.00106763397
			8:leaf=-0.0483496599
		4:[f1<0.700000048] yes=9,no=10,missing=9
			9:leaf=-0.0337940268
			10:leaf=-0.0725521892
	2:[f3<12.5] yes=5,no=6,missing=5
		5:[f5<5] yes=11,no=12,missing=11
			11:[f2<1.5] yes=15,no=16,missing=15
				15:leaf=-0.021108849
				16:leaf=0.0466096066
			12:[f1<0.300000012] yes=17,no=18,missing=17
				17:leaf=0.0326518677
				18:leaf=-0.02796866
		6:[f1<0.899999976] yes=13,no=14,missing=13
			13:[f1<0.300000012] yes=19,no=20,missing=19
				19:leaf=-0.0144600561
				20:leaf=0.0605489127
			14:leaf=-0.0470718481
booster[56]:
0:[f1<0.700000048] yes=1,no=2,missing=1
	1:[f0<0.5] yes=3,no=4,missing=3
		3:[f5<7] yes=7,no=8,missing=7
			7:leaf=-0.105559185
			8:[f1<0.300000012] yes=13,no=14,missing=13
				13:leaf=0.0791440904
				14:leaf=0.00334197353
		4:[f4<190] yes=9,no=10,missing=9
			9:[f5<11] yes=15,no=16,missing=15
				15:leaf=0.0330262408
				16:leaf=-0.0389013551
			10:leaf=0.0717600584
	2:[f5<11] yes=5,no=6,missing=5
		5:[f4<150] yes=11,no=12,missing=11
			11:[f5<7] yes=17,no=18,missing=17
				17:leaf=-0.0707196519
				18:leaf=-0.0185790025
			12:[f0<0.5] yes=19,no=20,missing=19
				19:leaf=0.0561162345
				20:leaf=-0.0202690121
		6:leaf=-0.0721238405
booster[57]:
0:[f2<0.5] yes=1,no=2,missing=1
	1:[f4<170] yes=3,no=4,missing=3
		3:[f3<7.5] yes=7,no=8,missing=7
			7:leaf=0.0128218653
			8:leaf=-0.0285271499
		4:leaf=-0.0703812391
	2:[f3<12.5] yes=5,no=6,missing=5
		5:[f4<150] yes=9,no=10,missing=9
			9:[f2<3] yes=13,no=14,missing=13
				13:leaf=-0.0561156385
				14:leaf=0.00740688248
			10:[f3<7.5] yes=15,no=16,missing=15
				15:leaf=0.0326801464
				16:leaf=-0.00660311803
		6:[f1<0.899999976] yes=11,no=12,missing=11
			11:[f1<0.5] yes=17,no=18,missing=17
				17:leaf=0.000515649212
				18:leaf=0.0809437484
			12:leaf=-0.0377307199
booster[58]:
0:[f2<1.5] yes=1,no=2,missing=1
	1:[f0<0.5] yes=3,no=4,missing=3
		3:[f2<0.5] yes=7,no=8,missing=7
			7:[f0<0.300000012] yes=15,no=16,missing=15
				15:leaf=-0.0371331684
				16:leaf=0.0128954304
			8:leaf=0.0593746193
		4:[f3<12.5] yes=9,no=10,missing=9
			9:[f2<0.5] yes=17,no=18,missing=17
				17:leaf=-0.0127790933
				18:leaf=-0.148946658
			10:[f2<0.5] yes=19,no=20,missing=19
				19:leaf=-0.043999847
				20:leaf=0.0632046387
	2:[f3<7.5] yes=5,no=6,missing=5
		5:[f4<190] yes=11,no=12,missing=11
			11:[f2<3] yes=21,no=22,missing=21
				21:leaf=0.00469029229
				22:leaf=0.058007177
			12:leaf=0.0671714172
		6:[f0<0.899999976] yes=13,no=14,missing=13
			13:[f4<170] yes=23,no=24,missing=23
				23:leaf=-0.0291627292
				24:leaf=0.0158707034
			14:[f2<5] yes=25,no=26,missing=25
				25:leaf=0.0452166572
				26:leaf=-0.0284480788
booster[59]:
0:[f5<7] yes=1,no=2,missing=1
	1:[f2<3] yes=3,no=4,missing=3
		3:[f2<0.5] yes=7,no=8,missing=7
			7:[f1<0.700000048] yes=15,no=16,missing=15
				15:leaf=-0.0538591556
				16:leaf=0.00566541916
			8:[f3<7.5] yes=17,no=18,missing=17
				17:leaf=-0.00203127856
				18:leaf=0.0324682072
		4:[f1<0.5] yes=9,no=10,missing=9
			9:leaf=-0.108187236
			10:leaf=0.00889883935
	2:[f1<0.899999976] yes=5,no=6,missing=5
		5:[f3<12.5] yes=11,no=12,missing=11
			11:[f1<0.300000012] yes=19,no=20,missing=19
				19:leaf=0.0464541875
				20:leaf=-0.014896323
			12:[f1<0.5] yes=21,no=22,missing=21
				21:leaf=0.014946497
				22:leaf=0.0994339213
		6:[f5<11] yes=13,no=14,missing=13
			13:leaf=0.00436647935
			14:leaf=-0.0713407025
booster[60]:
0:[f2<5] yes=1,no=2,missing=1
	1:[f0<0.5] yes=3,no=4,missing=3
		3:[f2<0.5] yes=7,no=8,missing=7
			7:[f3<7.5] yes=13,no=14,missing=13
				13:leaf=0.00264824927
				14:leaf=-0.028993899
			8:[f1<0.5] yes=15,no=16,missing=15
				15:leaf=-0.0222119372
				16:leaf=0.0369757526
		4:[f2<3] yes=9,no=10,missing=9
			9:[f3<7.5] yes=17,no=18,missing=17
				17:leaf=-0.0476930104
				18:leaf=-0.00791107677
			10:[f0<0.700000048] yes=19,no=20,missing=19
				19:leaf=0.0414179377
				20:leaf=-0.0160962474
	2:[f0<0.300000012] yes=5,no=6,missing=5
		5:leaf=-0.0584067218
		6:[f1<0.5] yes=11,no=12,missing=11
			11:leaf=0.00944588427
			12:[f3<7.5] yes=21,no=22,missing=21
				21:leaf=0.0133736329
				22:leaf=0.0599856339
booster[61]:
0:[f2<0.5] yes=1,no=2,missing=1
	1:[f4<150] yes=3,no=4,missing=3
		3:leaf=0.0434753783
		4:[f1<0.5] yes=7,no=8,missing=7
			7:leaf=-0.0573167615
			8:leaf=-0.0368887186
	2:[f1<0.899999976] yes=5,no=6,missing=5
		5:[f4<190] yes=9,no=10,missing=9
			9:[f5<5] yes=15,no=16,missing=15
				15:leaf=0.0429291129
				16:leaf=-0.00152079528
			10:[f5<11] yes=17,no=18,missing=17
				17:leaf=0.0102678714
				18:leaf=0.163529798
		6:[f5<9] yes=11,no=12,missing=11
			11:[f4<170] yes=19,no=20,missing=19
				19:leaf=-0.0244057644
				20:leaf=0.0204078909
			12:leaf=-0.04854187
booster[62]:
0:[f0<0.899999976] yes=1,no=2,missing=1
	1:[f4<190] yes=3,no=4,missing=3
		3:[f1<0.899999976] yes=7,no=8,missing=7
			7:[f4<150] yes=13,no=14,missing=13
				13:leaf=0.00353836711
				14:leaf=-0.0306540709
			8:[f5<6] yes=15,no=16,missing=15
				15:leaf=0.10417483
				16:leaf=0.00409844378
		4:[f0<0.5] yes=9,no=10,missing=9
			9:[f0<0.300000012] yes=17,no=18,missing=17
				17:leaf=-0.0297053251
				18:leaf=0.00802615657
			10:[f5<7] yes=19,no=20,missing=19
				19:leaf=0.0218306445
				20:leaf=0.0849967599
	2:[f4<150] yes=5,no=6,missing=5
		5:leaf=0.0493223965
		6:[f4<190] yes=11,no=12,missing=11
			11:[f5<5] yes=21,no=22,missing=21
				21:leaf=0.028859416
				22:leaf=-0.0492591746
			12:leaf=-0.106262997
booster[63]:
0:[f5<9] yes=1,no=2,missing=1
	1:[f2<3] yes=3,no=4,missing=3
		3:[f2<0.5] yes=7,no=8,missing=7
			7:[f0<0.899999976] yes=15,no=16,missing=15
				15:leaf=-0.0324468128
				16:leaf=0.00233444292
			8:[f1<0.300000012] yes=17,no=18,missing=17
				17:leaf=0.0187952053
				18:leaf=-0.0778841823
		4:[f1<0.300000012] yes=9,no=10,missing=9
			9:leaf=-0.0894998387
			10:[f5<5] yes=19,no=20,missing=19
				19:leaf=0.081957005
				20:leaf=-0.000605080684
	2:[f1<0.700000048] yes=5,no=6,missing=5
		5:[f0<0.5] yes=11,no=12,missing=11
			11:[f0<0.300000012] yes=21,no=22,missing=21
				21:leaf=-0.00239710743
				22:leaf=0.0682037026
			12:[f0<0.899999976] yes=23,no=24,missing=23
				23:leaf=-0.0349128768
				24:leaf=0.0130480202
		6:[f0<0.899999976] yes=13,no=14,missing=13
			13:leaf=0.0587218069
			14:leaf=-0.00412079832
booster[64]:
0:[f5<11] yes=1,no=2,missing=1
	1:[f1<0.5] yes=3,no=4,missing=3
		3:[f0<0.300000012] yes=7,no=8,missing=7
			7:leaf=0.12071158
			8:[f5<5] yes=15,no=16,missing=15
				15:leaf=-0.0281172451
				16:leaf=0.0327744745
		4:[f0<0.5] yes=9,no=10,missing=9
			9:[f5<9] yes=17,no=18,missing=17
				17:leaf=0.00841180515
				18:leaf=-0.0378042571
			10:[f5<7] yes=19,no=20,missing=19
				19:leaf=0.00727442745
				20:leaf=0.0447630994
	2:[f0<0.5] yes=5,no=6,missing=5
		5:[f0<0.300000012] yes=11,no=12,missing=11
			11:leaf=-0.0502493195
			12:leaf=0.055694975
		6:[f1<0.300000012] yes=13,no=14,missing=13
			13:leaf=0.00909117889
			14:[f3<7.5] yes=21,no=22,missing=21
				21:leaf=-0.11475642
				22:leaf=-0.069409743
booster[65]:
0:[f5<7] yes=1,no=2,missing=1
	1:[f4<170] yes=3,no=4,missing=3
		3:[f4<150] yes=7,no=8,missing=7
			7:[f0<0.899999976] yes=15,no=16,missing=15
				15:leaf=-0.0538595803
				16:leaf=0.0397449955
			8:[f1<0.700000048] yes=17,no=18,missing=17
				17:leaf=0.0918447226
				18:leaf=0.027773682
		4:[f1<0.5] yes=9,no=10,missing=9
			9:leaf=-0.0488387533
			10:[f0<0.5] yes=19,no=20,missing=19
				19:leaf=-0.0288757533
				20:leaf=0.0235242844
	2:[f4<150] yes=5,no=6,missing=5
		5:[f5<9] yes=11,no=12,missing=11
			11:leaf=0.00025106594
			12:[f5<11] yes=21,no=22,missing=21
				21:leaf=0.0994252712
				22:leaf=0.012516561
		6:[f4<170] yes=13,no=14,missing=13
			13:[f1<0.899999976] yes=23,no=24,missing=23
				23:leaf=-0.0218454599
				24:leaf=0.0542590283
			14:[f1<0.899999976] yes=25,no=26,missing=25
				25:leaf=0.0328264534
				26:leaf=-0.0170229953
booster[66]:
0:[f4<190] yes=1,no=2,missing=1
	1:[f4<150] yes=3,no=4,missing=3
		3:[f5<9] yes=7,no=8,missing=7
			7:[f0<0.300000012] yes=13,no=14,missing=13
				13:leaf=-0.190642461
				14:leaf=-0.00213392428
			8:[f2<3] yes=15,no=16,missing=15
				15:leaf=-0.0014967079
				16:leaf=0.118624203
		4:[f0<0.300000012] yes=9,no=10,missing=9
			9:[f5<9] yes=17,no=18,missing=17
				17:leaf=0.12928091
				18:leaf=-0.0238594711
			10:[f2<1.5] yes=19,no=20,missing=19
				19:leaf=-0.013519071
				20:leaf=0.0165848602
	2:[f5<11] yes=5,no=6,missing=5
		5:[f2<3] yes=11,no=12,missing=11
			11:[f5<9] yes=21,no=22,missing=21
				21:leaf=-0.0675096437
				22:leaf=-0.0381413735
			12:[f0<0.5] yes=23,no=24,missing=23
				23:leaf=-0.0277404133
				24:leaf=0.0179400798
		6:leaf=0.0296652503
booster[67]:
0:[f5<9] yes=1,no=2,missing=1
	1:[f1<0.899999976] yes=3,no=4,missing=3
		3:[f4<190] yes=7,no=8,missing=7
			7:[f1<0.5] yes=15,no=16,missing=15
				15:leaf=0.00652628252
				16:leaf=-0.0451787859
			8:[f1<0.5] yes=17,no=18,missing=17
				17:leaf=-0.0268640108
				18:leaf=0.0607522614
		4:[f4<190] yes=9,no=10,missing=9
			9:[f3<12.5] yes=19,no=20,missing=19
				19:leaf=0.0817660838
				20:leaf=0.049271211
			10:leaf=-0.0698971078
	2:[f4<150] yes=5,no=6,missing=5
		5:[f5<11] yes=11,no=12,missing=11
			11:[f1<0.5] yes=21,no=22,missing=21
				21:leaf=0.0425245687
				22:leaf=0.0956746861
			12:leaf=0.00986532867
		6:[f3<12.5] yes=13,no=14,missing=13
			13:[f3<7.5] yes=23,no=24,missing=23
				23:leaf=0.0419171564
				24:leaf=0.0146209691
			14:[f4<190] yes=25,no=26,missing=25
				25:leaf=-0.0354182161
				26:leaf=0.0170888696
booster[68]:
0:[f1<0.700000048] yes=1,no=2,missing=1
	1:[f4<190] yes=3,no=4,missing=3
		3:[f5<7] yes=7,no=8,missing=7
			7:[f1<0.300000012] yes=15,no=16,missing=15
				15:leaf=-0.0398543403
				16:leaf=0.0618405044
			8:[f5<9] yes=17,no=18,missing=17
				17:leaf=-0.0544580407
				18:leaf=-0.0123587307
		4:[f5<11] yes=9,no=10,missing=9
			9:[f5<9] yes=19,no=20,missing=19
				19:leaf=0.0145294089
				20:leaf=-0.0523814745
			10:leaf=0.107184947
	2:[f4<190] yes=5,no=6,missing=5
		5:[f5<9] yes=11,no=12,missing=11
			11:[f1<0.899999976] yes=21,no=22,missing=21
				21:leaf=-0.0782167912
				22:leaf=-0.00425703265
			12:[f1<0.899999976] yes=23,no=24,missing=23
				23:leaf=0.0404150113
				24:leaf=0.00535355555
		6:[f1<0.899999976] yes=13,no=14,missing=13
			13:leaf=-0.0297325309
			14:leaf=-0.0874701589
booster[69]:
0:[f3<12.5] yes=1,no=2,missing=1
	1:[f5<5] yes=3,no=4,missing=3
		3:[f2<3] yes=7,no=8,missing=7
			7:[f1<0.899999976] yes=15,no=16,missing=15
				15:leaf=-0.01598165
				16:leaf=0.0422587357
			8:leaf=0.0435206518
		4:[f1<0.700000048] yes=9,no=10,missing=9
			9:[f2<0.5] yes=17,no=18,missing=17
				17:leaf=0.0236406457
				18:leaf=-0.0112795597
			10:[f1<0.899999976] yes=19,no=20,missing=19
				19:leaf=-0.0666727871
				20:leaf=0.00492935674
	2:[f2<0.5] yes=5,no=6,missing=5
		5:[f1<0.700000048] yes=11,no=12,missing=11
			11:leaf=-0.0279555507
			12:leaf=-0.00442799507
		6:[f5<9] yes=13,no=14,missing=13
			13:[f2<5] yes=21,no=22,missing=21
				21:leaf=0.102437079
				22:leaf=0.0150397811
			14:[f1<0.899999976] yes=23,no=24,missing=23
				23:leaf=0.0427488759
				24:leaf=-0.0270251166
booster[70]:
0:[f4<190] yes=1,no=2,missing=1
	1:[f1<0.899999976] yes=3,no=4,missing=3
		3:[f2<1.5] yes=7,no=8,missing=7
			7:[f1<0.300000012] yes=13,no=14,missing=13
				13:leaf=0.0782049075
				14:leaf=-0.0158600453
			8:[f1<0.300000012] yes=15,no=16,missing=15
				15:leaf=-0.061673522
				16:leaf=-0.0026447319
		4:[f4<150] yes=9,no=10,missing=9
			9:leaf=-0.0381775461
			10:[f2<5] yes=17,no=18,missing=17
				17:leaf=0.0597566441
				18:leaf=0.00849286374
	2:[f1<0.300000012] yes=5,no=6,missing=5
		5:leaf=0.0696952716
		6:[f5<11] yes=11,no=12,missing=11
			11:[f2<3] yes=19,no=20,missing=19
				19:leaf=-0.0475846455
				20:leaf=0.00666657463
			12:leaf=-0.104061976
booster[71]:
0:[f2<0.5] yes=1,no=2,missing=1
	1:[f4<170] yes=3,no=4,missing=3
		3:[f0<0.700000048] yes=7,no=8,missing=7
			7:leaf=-0.0262955632
			8:leaf=0.0120878546
		4:[f0<0.5] yes=9,no=10,missing=9
			9:leaf=-0.0221577231
			10:leaf=-0.0595187508
	2:[f5<5] yes=5,no=6,missing=5
		5:[f4<170] yes=11,no=12,missing=11
			11:leaf=0.00563718705
			12:[f0<0.700000048] yes=17,no=18,missing=17
				17:leaf=0.094086729
				18:leaf=0.0133047765
		6:[f5<9] yes=13,no=14,missing=13
			13:[f4<170] yes=19,no=20,missing=19
				19:leaf=-0.0254777279
				20:leaf=0.0113056675
			14:[f4<150] yes=21,no=22,missing=21
				21:leaf=0.0370621867
				22:leaf=-0.00720916037
booster[72]:
0:[f5<9] yes=1,no=2,missing=1
	1:[f4<190] yes=3,no=4,missing=3
		3:[f3<12.5] yes=7,no=8,missing=7
			7:[f5<7] yes=15,no=16,missing=15
				15:leaf=0.0287971348
				16:leaf=-0.0464667007
			8:[f5<5] yes=17,no=18,missing=17
				17:leaf=-0.0989831313
				18:leaf=-0.012166745
		4:[f2<1.5] yes=9,no=10,missing=9
			9:leaf=-0.0359006897
			10:[f2<5] yes=19,no=20,missing=19
				19:leaf=0.0739603564
				20:leaf=-0.00202548061
	2:[f5<11] yes=5,no=6,missing=5
		5:[f4<190] yes=11,no=12,missing=11
			11:[f4<150] yes=21,no=22,missing=21
				21:leaf=0.0695503354
				22:leaf=0.0272969343
			12:leaf=-0.0181126297
		6:[f3<7.5] yes=13,no=14,missing=13
			13:leaf=-0.0473931096
			14:[f4<190] yes=23,no=24,missing=23
				23:leaf=0.000545185932
				24:leaf=0.0579517297
booster[73]:
0:[f4<150] yes=1,no=2,missing=1
	1:[f1<0.899999976] yes=3,no=4,missing=3
		3:[f1<0.300000012] yes=7,no=8,missing=7
			7:leaf=-0.0602813065
			8:[f3<12.5] yes=13,no=14,missing=13
				13:leaf=-0.00350667769
				14:leaf=0.049773138
		4:leaf=-0.0759621188
	2:[f0<0.300000012] yes=5,no=6,missing=5
		5:[f1<0.899999976] yes=9,no=10,missing=9
			9:[f1<0.5] yes=15,no=16,missing=15
				15:leaf=0.0336052552
				16:leaf=-0.0367323719
			10:leaf=0.0856701657
		6:[f1<0.899999976] yes=11,no=12,missing=11
			11:[f4<190] yes=17,no=18,missing=17
				17:leaf=-0.00672276644
				18:leaf=0.0176328365
			12:[f3<7.5] yes=19,no=20,missing=19
				19:leaf=-0.0645906031
				20:leaf=0.00949825905
booster[74]:
0:[f4<190] yes=1,no=2,missing=1
	1:[f0<0.899999976] yes=3,no=4,missing=3
		3:[f1<0.700000048] yes=7,no=8,missing=7
			7:[f4<170] yes=13,no=14,missing=13
				13:leaf=-0.00373197463
				14:leaf=-0.0757007152
			8:[f4<170] yes=15,no=16,missing=15
				15:leaf=-0.00192966335
				16:leaf=0.0465844832
		4:[f3<7.5] yes=9,no=10,missing=9
			9:leaf=-0.00444011623
			10:[f1<0.5] yes=17,no=18,missing=17
				17:leaf=0.0679132491
				18:leaf=0.0309907943
	2:[f1<0.300000012] yes=5,no=6,missing=5
		5:leaf=0.0623925403
		6:[f0<0.700000048] yes=11,no=12,missing=11
			11:[f1<0.5] yes=19,no=20,missing=19
				19:leaf=-0.0493409745
				20:leaf=-0.00938657951
			12:leaf=-0.0922976956
booster[75]:
0:[f2<5] yes=1,no=2,missing=1
	1:[f2<1.5] yes=3,no=4,missing=3
		3:[f5<9] yes=7,no=8,missing=7
			7:[f3<12.5] yes=15,no=16,missing=15
				15:leaf=-0.0507550053
				16:leaf=-0.0083477227
			8:[f3<12.5] yes=17,no=18,missing=17
				17:leaf=-0.00965006184
				18:leaf=0.0325898379
		4:[f5<11] yes=9,no=10,missing=9
			9:[f0<0.5] yes=19,no=20,missing=19
				19:leaf=-0.015988322
				20:leaf=0.0321772695
			10:[f0<0.5] yes=21,no=22,missing=21
				21:leaf=0.0184318777
				22:leaf=-0.0480306856
	2:[f5<7] yes=5,no=6,missing=5
		5:[f5<5] yes=11,no=12,missing=11
			11:leaf=0.0320838094
			12:leaf=-0.0485457182
		6:[f3<12.5] yes=13,no=14,missing=13
			13:[f0<0.600000024] yes=23,no=24,missing=23
				23:leaf=0.0247697867
				24:leaf=-0.0274520349
			14:leaf=0.0845636278
booster[76]:
0:[f1<0.700000048] yes=1,no=2,missing=1
	1:[f5<7] yes=3,no=4,missing=3
		3:[f1<0.300000012] yes=7,no=8,missing=7
			7:leaf=-0.0334843844
			8:[f4<170] yes=15,no=16,missing=15
				15:leaf=0.11015337
				16:leaf=-0.00825197157
		4:[f4<190] yes=9,no=10,missing=9
			9:[f5<9] yes=17,no=18,missing=17
				17:leaf=-0.0283003151
				18:leaf=0.00622418895
			10:[f0<0.300000012] yes=19,no=20,missing=19
				19:leaf=-0.0526771955
				20:leaf=0.0530844145
	2:[f4<190] yes=5,no=6,missing=5
		5:[f4<170] yes=11,no=12,missing=11
			11:[f0<0.300000012] yes=21,no=22,missing=21
				21:leaf=-0.0886569172
				22:leaf=-0.00180254166
			12:leaf=0.0410505794
		6:[f0<0.700000048] yes=13,no=14,missing=13
			13:leaf=0.00701507879
			14:leaf=-0.106011227
booster[77]:
0:[f1<0.5] yes=1,no=2,missing=1
	1:[f5<9] yes=3,no=4,missing=3
		3:[f0<0.300000012] yes=7,no=8,missing=7
			7:leaf=-0.00655501941
			8:[f0<0.5] yes=15,no=16,missing=15
				15:leaf=-0.10335201
				16:leaf=-0.0261457004
		4:[f0<0.899999976] yes=9,no=10,missing=9
			9:[f5<11] yes=17,no=18,missing=17
				17:leaf=0.0129649555
				18:leaf=-0.0420603268
			10:leaf=0.0851746723
	2:[f0<0.300000012] yes=5,no=6,missing=5
		5:[f1<0.700000048] yes=11,no=12,missing=11
			11:leaf=0.00652187318
			12:leaf=-0.0256545153
		6:[f0<0.700000048] yes=13,no=14,missing=13
			13:[f1<0.899999976] yes=19,no=20,missing=19
				19:leaf=0.026856795
				20:leaf=-0.0118845254
			14:[f5<11] yes=21,no=22,missing=21
				21:leaf=0.0111877657
				22:leaf=-0.0284683146
booster[78]:
0:[f2<1.5] yes=1,no=2,missing=1
	1:[f0<0.5] yes=3,no=4,missing=3
		3:[f4<170] yes=7,no=8,missing=7
			7:leaf=0.051082205
			8:[f5<9] yes=15,no=16,missing=15
				15:leaf=0.0454569422
				16:leaf=-0.0242393296
		4:[f5<9] yes=9,no=10,missing=9
			9:[f5<7] yes=17,no=18,missing=17
				17:leaf=-0.00815171376
				18:leaf=-0.109201722
			10:[f2<0.5] yes=19,no=20,missing=19
				19:leaf=-0.0288689379
				20:leaf=0.0252889339
	2:[f5<5] yes=5,no=6,missing=5
		5:[f2<3] yes=11,no=12,missing=11
			11:leaf=-0.00315937819
			12:[f2<5] yes=21,no=22,missing=21
				21:leaf=0.0954940841
				22:leaf=0.0272127092
		6:[f4<150] yes=13,no=14,missing=13
			13:[f2<3] yes=23,no=24,missing=23
				23:leaf=0.00278134109
				24:leaf=0.0483531952
			14:[f5<7] yes=25,no=26,missing=25
				25:leaf=-0.0329707228
				26:leaf=0.00603390159
booster[79]:
0:[f1<0.899999976] yes=1,no=2,missing=1
	1:[f4<190] yes=3,no=4,missing=3
		3:[f3<7.5] yes=7,no=8,missing=7
			7:[f5<11] yes=13,no=14,missing=13
				13:leaf=0.0533115081
				14:leaf=-0.0573039763
			8:[f5<5] yes=15,no=16,missing=15
				15:leaf=-0.0632079244
				16:leaf=-0.000359184691
		4:[f3<12.5] yes=9,no=10,missing=9
			9:[f5<7] yes=17,no=18,missing=17
				17:leaf=-0.0166482031
				18:leaf=0.0232439749
			10:leaf=0.0652835369
	2:[f3<7.5] yes=5,no=6,missing=5
		5:leaf=-0.0911361724
		6:[f5<11] yes=11,no=12,missing=11
			11:[f5<5] yes=19,no=20,missing=19
				19:leaf=0.0411921665
				20:leaf=-0.0086781187
			12:leaf=-0.0821776092
